digraph Tree {
node [shape=box, style="filled, rounded", color="black", fontname=helvetica] ;
edge [fontname=helvetica] ;
0 [label="petal_width <= 0.8\nentropy = 1.584\nsamples = 120\nvalue = [38, 41, 41]\nclass = Iris-versicolor", fillcolor="#ffffff"] ;
1 [label="entropy = 0.0\nsamples = 38\nvalue = [38, 0, 0]\nclass = Iris-setosa", fillcolor="#e58139"] ;
0 -> 1 [labeldistance=2.5, labelangle=45, headlabel="True"] ;
2 [label="petal_width <= 1.75\nentropy = 1.0\nsamples = 82\nvalue = [0, 41, 41]\nclass = Iris-versicolor", fillcolor="#ffffff"] ;
0 -> 2 [labeldistance=2.5, labelangle=-45, headlabel="False"] ;
3 [label="petal_length <= 4.95\nentropy = 0.496\nsamples = 46\nvalue = [0, 41, 5]\nclass = Iris-versicolor", fillcolor="#51e890"] ;
2 -> 3 ;
4 [label="petal_width <= 1.65\nentropy = 0.169\nsamples = 40\nvalue = [0, 39, 1]\nclass = Iris-versicolor", fillcolor="#3ee684"] ;
3 -> 4 ;
5 [label="entropy = 0.0\nsamples = 39\nvalue = [0, 39, 0]\nclass = Iris-versicolor", fillcolor="#39e581"] ;
4 -> 5 ;
6 [label="entropy = 0.0\nsamples = 1\nvalue = [0, 0, 1]\nclass = Iris-virginica", fillcolor="#8139e5"] ;
4 -> 6 ;
7 [label="petal_width <= 1.55\nentropy = 0.918\nsamples = 6\nvalue = [0, 2, 4]\nclass = Iris-virginica", fillcolor="#c09cf2"] ;
3 -> 7 ;
8 [label="entropy = 0.0\nsamples = 3\nvalue = [0, 0, 3]\nclass = Iris-virginica", fillcolor="#8139e5"] ;
7 -> 8 ;
9 [label="entropy = 0.918\nsamples = 3\nvalue = [0, 2, 1]\nclass = Iris-versicolor", fillcolor="#9cf2c0"] ;
7 -> 9 ;
10 [label="entropy = 0.0\nsamples = 36\nvalue = [0, 0, 36]\nclass = Iris-virginica", fillcolor="#8139e5"] ;
2 -> 10 ;
}