digraph Tree {
node [shape=box, style="filled, rounded", color="black", fontname=helvetica] ;
edge [fontname=helvetica] ;
0 [label="X[0] <= 6.971\nmse = 85.954\nsamples = 404\nvalue = 22.691", fillcolor="#f6d4bb"] ;
1 [label="X[0] <= 6.547\nmse = 40.033\nsamples = 346\nvalue = 20.048", fillcolor="#f8dcc8"] ;
0 -> 1 [labeldistance=2.5, labelangle=45, headlabel="True"] ;
2 [label="X[0] <= 5.758\nmse = 28.258\nsamples = 284\nvalue = 18.738", fillcolor="#f9e0ce"] ;
1 -> 2 ;
3 [label="X[0] <= 4.0\nmse = 43.939\nsamples = 63\nvalue = 15.794", fillcolor="#fae9dc"] ;
2 -> 3 ;
4 [label="X[0] <= 3.712\nmse = 4.84\nsamples = 2\nvalue = 25.3", fillcolor="#f4ccaf"] ;
3 -> 4 ;
5 [label="mse = 0.0\nsamples = 1\nvalue = 27.5", fillcolor="#f3c5a4"] ;
4 -> 5 ;
6 [label="mse = 0.0\nsamples = 1\nvalue = 23.1", fillcolor="#f6d2b9"] ;
4 -> 6 ;
7 [label="X[0] <= 4.905\nmse = 42.161\nsamples = 61\nvalue = 15.482", fillcolor="#fbeadd"] ;
3 -> 7 ;
8 [label="mse = 4.613\nsamples = 6\nvalue = 10.35", fillcolor="#fef9f6"] ;
7 -> 8 ;
9 [label="mse = 43.071\nsamples = 55\nvalue = 16.042", fillcolor="#fae8db"] ;
7 -> 9 ;
10 [label="X[0] <= 6.007\nmse = 20.612\nsamples = 221\nvalue = 19.577", fillcolor="#f8ddca"] ;
2 -> 10 ;
11 [label="X[0] <= 5.81\nmse = 17.822\nsamples = 78\nvalue = 18.467", fillcolor="#f9e1cf"] ;
10 -> 11 ;
12 [label="mse = 1.832\nsamples = 9\nvalue = 20.489", fillcolor="#f7dac5"] ;
11 -> 12 ;
13 [label="mse = 19.305\nsamples = 69\nvalue = 18.203", fillcolor="#f9e1d0"] ;
11 -> 13 ;
14 [label="X[0] <= 6.543\nmse = 21.095\nsamples = 143\nvalue = 20.183", fillcolor="#f8dbc7"] ;
10 -> 14 ;
15 [label="mse = 20.632\nsamples = 142\nvalue = 20.248", fillcolor="#f8dbc7"] ;
14 -> 15 ;
16 [label="mse = -0.0\nsamples = 1\nvalue = 10.9", fillcolor="#fdf7f3"] ;
14 -> 16 ;
17 [label="X[0] <= 6.825\nmse = 50.065\nsamples = 62\nvalue = 26.052", fillcolor="#f4caab"] ;
1 -> 17 ;
18 [label="X[0] <= 6.82\nmse = 53.087\nsamples = 46\nvalue = 25.287", fillcolor="#f4ccaf"] ;
17 -> 18 ;
19 [label="X[0] <= 6.797\nmse = 47.789\nsamples = 45\nvalue = 25.662", fillcolor="#f4cbad"] ;
18 -> 19 ;
20 [label="mse = 47.293\nsamples = 42\nvalue = 25.167", fillcolor="#f5ccaf"] ;
19 -> 20 ;
21 [label="mse = 3.167\nsamples = 3\nvalue = 32.6", fillcolor="#f0b68c"] ;
19 -> 21 ;
22 [label="mse = -0.0\nsamples = 1\nvalue = 8.4", fillcolor="#ffffff"] ;
18 -> 22 ;
23 [label="X[0] <= 6.962\nmse = 34.861\nsamples = 16\nvalue = 28.25", fillcolor="#f3c3a1"] ;
17 -> 23 ;
24 [label="X[0] <= 6.834\nmse = 12.847\nsamples = 14\nvalue = 29.014", fillcolor="#f2c19d"] ;
23 -> 24 ;
25 [label="mse = 0.0\nsamples = 1\nvalue = 33.1", fillcolor="#f0b489"] ;
24 -> 25 ;
26 [label="mse = 12.452\nsamples = 13\nvalue = 28.7", fillcolor="#f2c29e"] ;
24 -> 26 ;
27 [label="mse = 156.25\nsamples = 2\nvalue = 22.9", fillcolor="#f6d3ba"] ;
23 -> 27 ;
28 [label="X[0] <= 7.437\nmse = 69.611\nsamples = 58\nvalue = 38.459", fillcolor="#eca470"] ;
0 -> 28 [labeldistance=2.5, labelangle=-45, headlabel="False"] ;
29 [label="X[0] <= 7.3\nmse = 31.275\nsamples = 32\nvalue = 32.447", fillcolor="#f0b68d"] ;
28 -> 29 ;
30 [label="X[0] <= 7.015\nmse = 26.064\nsamples = 26\nvalue = 33.173", fillcolor="#f0b489"] ;
29 -> 30 ;
31 [label="X[0] <= 6.994\nmse = 23.242\nsamples = 7\nvalue = 30.457", fillcolor="#f1bc96"] ;
30 -> 31 ;
32 [label="mse = 21.374\nsamples = 5\nvalue = 31.78", fillcolor="#f0b890"] ;
31 -> 32 ;
33 [label="mse = 12.603\nsamples = 2\nvalue = 27.15", fillcolor="#f3c6a6"] ;
31 -> 33 ;
34 [label="X[0] <= 7.02\nmse = 23.385\nsamples = 19\nvalue = 34.174", fillcolor="#efb184"] ;
30 -> 34 ;
35 [label="mse = 0.0\nsamples = 1\nvalue = 50.0", fillcolor="#e58139"] ;
34 -> 35 ;
36 [label="mse = 9.996\nsamples = 18\nvalue = 33.294", fillcolor="#efb489"] ;
34 -> 36 ;
37 [label="X[0] <= 7.32\nmse = 41.667\nsamples = 6\nvalue = 29.3", fillcolor="#f2c09c"] ;
29 -> 37 ;
38 [label="mse = 0.0\nsamples = 1\nvalue = 15.0", fillcolor="#fbebe0"] ;
37 -> 38 ;
39 [label="X[0] <= 7.414\nmse = 0.922\nsamples = 5\nvalue = 32.16", fillcolor="#f0b78e"] ;
37 -> 39 ;
40 [label="mse = 0.087\nsamples = 3\nvalue = 31.4", fillcolor="#f1b992"] ;
39 -> 40 ;
41 [label="mse = 0.01\nsamples = 2\nvalue = 33.3", fillcolor="#efb488"] ;
39 -> 41 ;
42 [label="X[0] <= 7.783\nmse = 17.566\nsamples = 26\nvalue = 45.858", fillcolor="#e88e4d"] ;
28 -> 42 ;
43 [label="X[0] <= 7.688\nmse = 15.898\nsamples = 9\nvalue = 43.4", fillcolor="#e99558"] ;
42 -> 43 ;
44 [label="X[0] <= 7.479\nmse = 6.141\nsamples = 7\nvalue = 45.086", fillcolor="#e89050"] ;
43 -> 44 ;
45 [label="mse = 0.062\nsamples = 2\nvalue = 43.75", fillcolor="#e99457"] ;
44 -> 45 ;
46 [label="mse = 7.574\nsamples = 5\nvalue = 45.62", fillcolor="#e88e4e"] ;
44 -> 46 ;
47 [label="X[0] <= 7.728\nmse = 5.29\nsamples = 2\nvalue = 37.5", fillcolor="#eda774"] ;
43 -> 47 ;
48 [label="mse = 0.0\nsamples = 1\nvalue = 35.2", fillcolor="#eeae7f"] ;
47 -> 48 ;
49 [label="mse = 0.0\nsamples = 1\nvalue = 39.8", fillcolor="#eba06a"] ;
47 -> 49 ;
50 [label="X[0] <= 8.037\nmse = 13.558\nsamples = 17\nvalue = 47.159", fillcolor="#e78a47"] ;
42 -> 50 ;
51 [label="X[0] <= 7.826\nmse = 5.004\nsamples = 9\nvalue = 48.633", fillcolor="#e68540"] ;
50 -> 51 ;
52 [label="mse = 6.907\nsamples = 3\nvalue = 46.4", fillcolor="#e78c4a"] ;
51 -> 52 ;
53 [label="mse = 0.312\nsamples = 6\nvalue = 49.75", fillcolor="#e5823a"] ;
51 -> 53 ;
54 [label="X[0] <= 8.356\nmse = 17.983\nsamples = 8\nvalue = 45.5", fillcolor="#e88f4e"] ;
50 -> 54 ;
55 [label="mse = 12.442\nsamples = 5\nvalue = 43.04", fillcolor="#e9965a"] ;
54 -> 55 ;
56 [label="mse = 0.32\nsamples = 3\nvalue = 49.6", fillcolor="#e5823b"] ;
54 -> 56 ;
}