digraph Tree {
node [shape=box, style="filled, rounded", color="black", fontname=helvetica] ;
edge [fontname=helvetica] ;
<<<<<<< HEAD
0 [label="X[9] <= 0.585\ngini = 0.5\nsamples = 809\nvalue = [647, 632]", fillcolor="#fefcfa"] ;
1 [label="X[1] <= 0.395\ngini = 0.444\nsamples = 310\nvalue = [162, 325]", fillcolor="#9ccef2"] ;
0 -> 1 [labeldistance=2.5, labelangle=45, headlabel="True"] ;
2 [label="X[6] <= 44.0\ngini = 0.461\nsamples = 49\nvalue = [57, 32]", fillcolor="#f4c8a8"] ;
1 -> 2 ;
3 [label="X[9] <= 0.575\ngini = 0.34\nsamples = 29\nvalue = [36, 10]", fillcolor="#eca470"] ;
2 -> 3 ;
4 [label="gini = 0.219\nsamples = 26\nvalue = [35, 5]", fillcolor="#e99355"] ;
3 -> 4 ;
5 [label="gini = 0.278\nsamples = 3\nvalue = [1, 5]", fillcolor="#61b1ea"] ;
3 -> 5 ;
6 [label="X[6] <= 125.5\ngini = 0.5\nsamples = 20\nvalue = [21, 22]", fillcolor="#f6fbfe"] ;
2 -> 6 ;
7 [label="gini = 0.475\nsamples = 17\nvalue = [14, 22]", fillcolor="#b7dbf6"] ;
6 -> 7 ;
8 [label="gini = 0.0\nsamples = 3\nvalue = [7, 0]", fillcolor="#e58139"] ;
6 -> 8 ;
9 [label="X[10] <= 11.1\ngini = 0.388\nsamples = 261\nvalue = [105, 293]", fillcolor="#80c0ee"] ;
1 -> 9 ;
10 [label="X[1] <= 0.632\ngini = 0.317\nsamples = 227\nvalue = [68, 276]", fillcolor="#6ab5eb"] ;
9 -> 10 ;
11 [label="gini = 0.396\nsamples = 125\nvalue = [50, 134]", fillcolor="#83c2ef"] ;
10 -> 11 ;
12 [label="gini = 0.2\nsamples = 102\nvalue = [18, 142]", fillcolor="#52a9e8"] ;
10 -> 12 ;
13 [label="X[8] <= 3.695\ngini = 0.431\nsamples = 34\nvalue = [37, 17]", fillcolor="#f1bb94"] ;
9 -> 13 ;
14 [label="gini = 0.385\nsamples = 32\nvalue = [37, 13]", fillcolor="#eead7f"] ;
13 -> 14 ;
15 [label="gini = 0.0\nsamples = 2\nvalue = [0, 4]", fillcolor="#399de5"] ;
13 -> 15 ;
16 [label="X[10] <= 10.525\ngini = 0.475\nsamples = 499\nvalue = [485, 307]", fillcolor="#f5d1b6"] ;
0 -> 16 [labeldistance=2.5, labelangle=-45, headlabel="False"] ;
17 [label="X[10] <= 9.975\ngini = 0.484\nsamples = 272\nvalue = [175, 251]", fillcolor="#c3e1f7"] ;
16 -> 17 ;
18 [label="X[5] <= 6.5\ngini = 0.453\nsamples = 179\nvalue = [99, 186]", fillcolor="#a2d1f3"] ;
17 -> 18 ;
19 [label="gini = 0.487\nsamples = 32\nvalue = [29, 21]", fillcolor="#f8dcc8"] ;
18 -> 19 ;
20 [label="gini = 0.418\nsamples = 147\nvalue = [70, 165]", fillcolor="#8dc7f0"] ;
18 -> 20 ;
21 [label="X[6] <= 82.5\ngini = 0.497\nsamples = 93\nvalue = [76, 65]", fillcolor="#fbede2"] ;
17 -> 21 ;
22 [label="gini = 0.484\nsamples = 84\nvalue = [75, 52]", fillcolor="#f7d8c2"] ;
21 -> 22 ;
23 [label="gini = 0.133\nsamples = 9\nvalue = [1, 13]", fillcolor="#48a5e7"] ;
21 -> 23 ;
24 [label="X[8] <= 2.96\ngini = 0.259\nsamples = 227\nvalue = [310, 56]", fillcolor="#ea985d"] ;
16 -> 24 ;
25 [label="gini = 0.0\nsamples = 2\nvalue = [0, 4]", fillcolor="#399de5"] ;
24 -> 25 ;
26 [label="X[4] <= 0.098\ngini = 0.246\nsamples = 225\nvalue = [310, 52]", fillcolor="#e9965a"] ;
24 -> 26 ;
27 [label="gini = 0.203\nsamples = 197\nvalue = [278, 36]", fillcolor="#e89153"] ;
26 -> 27 ;
28 [label="gini = 0.444\nsamples = 28\nvalue = [32, 16]", fillcolor="#f2c09c"] ;
=======
0 [label="X[2] <= 0.265\ngini = 0.5\nsamples = 803\nvalue = [659, 620]", fillcolor="#fdf8f3"] ;
1 [label="X[7] <= 0.996\ngini = 0.483\nsamples = 412\nvalue = [264, 384]", fillcolor="#c1e0f7"] ;
0 -> 1 [labeldistance=2.5, labelangle=45, headlabel="True"] ;
2 [label="X[9] <= 0.525\ngini = 0.492\nsamples = 142\nvalue = [126, 98]", fillcolor="#f9e3d3"] ;
1 -> 2 ;
3 [label="X[3] <= 1.3\ngini = 0.286\nsamples = 32\nvalue = [9, 43]", fillcolor="#62b2ea"] ;
2 -> 3 ;
4 [label="gini = 0.0\nsamples = 1\nvalue = [2, 0]", fillcolor="#e58139"] ;
3 -> 4 ;
5 [label="gini = 0.241\nsamples = 31\nvalue = [7, 43]", fillcolor="#59ade9"] ;
3 -> 5 ;
6 [label="X[9] <= 0.645\ngini = 0.435\nsamples = 110\nvalue = [117, 55]", fillcolor="#f1bc96"] ;
2 -> 6 ;
7 [label="gini = 0.489\nsamples = 70\nvalue = [62, 46]", fillcolor="#f8decc"] ;
6 -> 7 ;
8 [label="gini = 0.242\nsamples = 40\nvalue = [55, 9]", fillcolor="#e99659"] ;
6 -> 8 ;
9 [label="X[4] <= 0.098\ngini = 0.439\nsamples = 270\nvalue = [138, 286]", fillcolor="#99ccf2"] ;
1 -> 9 ;
10 [label="X[7] <= 0.998\ngini = 0.464\nsamples = 227\nvalue = [129, 223]", fillcolor="#acd6f4"] ;
9 -> 10 ;
11 [label="gini = 0.436\nsamples = 190\nvalue = [95, 201]", fillcolor="#97cbf1"] ;
10 -> 11 ;
12 [label="gini = 0.477\nsamples = 37\nvalue = [34, 22]", fillcolor="#f6d3b9"] ;
10 -> 12 ;
13 [label="X[10] <= 10.15\ngini = 0.219\nsamples = 43\nvalue = [9, 63]", fillcolor="#55abe9"] ;
9 -> 13 ;
14 [label="gini = 0.037\nsamples = 33\nvalue = [1, 52]", fillcolor="#3d9fe6"] ;
13 -> 14 ;
15 [label="gini = 0.488\nsamples = 10\nvalue = [8, 11]", fillcolor="#c9e4f8"] ;
13 -> 15 ;
16 [label="X[7] <= 0.996\ngini = 0.468\nsamples = 391\nvalue = [395, 236]", fillcolor="#f5ccaf"] ;
0 -> 16 [labeldistance=2.5, labelangle=-45, headlabel="False"] ;
17 [label="X[10] <= 9.3\ngini = 0.098\nsamples = 120\nvalue = [183, 10]", fillcolor="#e68844"] ;
16 -> 17 ;
18 [label="gini = 0.0\nsamples = 1\nvalue = [0, 1]", fillcolor="#399de5"] ;
17 -> 18 ;
19 [label="X[8] <= 3.275\ngini = 0.089\nsamples = 119\nvalue = [183, 9]", fillcolor="#e68743"] ;
17 -> 19 ;
20 [label="gini = 0.0\nsamples = 50\nvalue = [73, 0]", fillcolor="#e58139"] ;
19 -> 20 ;
21 [label="gini = 0.14\nsamples = 69\nvalue = [110, 9]", fillcolor="#e78b49"] ;
19 -> 21 ;
22 [label="X[10] <= 10.65\ngini = 0.499\nsamples = 271\nvalue = [212, 226]", fillcolor="#f3f9fd"] ;
16 -> 22 ;
23 [label="X[10] <= 9.65\ngini = 0.46\nsamples = 197\nvalue = [117, 209]", fillcolor="#a8d4f4"] ;
22 -> 23 ;
24 [label="gini = 0.379\nsamples = 109\nvalue = [47, 138]", fillcolor="#7cbeee"] ;
23 -> 24 ;
25 [label="gini = 0.5\nsamples = 88\nvalue = [70, 71]", fillcolor="#fcfeff"] ;
23 -> 25 ;
26 [label="X[8] <= 2.995\ngini = 0.257\nsamples = 74\nvalue = [95, 17]", fillcolor="#ea985c"] ;
22 -> 26 ;
27 [label="gini = 0.0\nsamples = 3\nvalue = [0, 3]", fillcolor="#399de5"] ;
26 -> 27 ;
28 [label="gini = 0.224\nsamples = 71\nvalue = [95, 14]", fillcolor="#e99456"] ;
>>>>>>> a1adfdf727735d89771bdb22e1384d718aacab86
26 -> 28 ;
}